1.62922740830194E+018,0.0345046689751,-0.102611925740664,0.429185447547579,0.896705119940828
1.62922740837035E+018,0.035140428679383,-0.101635513289202,0.429111131513901,0.896827190445032
1.62922740844993E+018,0.035741077551527,-0.100828693452235,0.428796645236023,0.897044919157621
1.62922740852497E+018,0.03639339002843,-0.099956100828224,0.428599228822842,0.897210677668251
1.62922740860051E+018,0.037059588599107,-0.098921884098664,0.428557457103973,0.897317978032209
1.62922740867968E+018,0.03777737003669,-0.09786969467032,0.428502739376282,0.897429549059575
1.62922740875492E+018,0.038425537577719,-0.097133651600542,0.428256606608907,0.897599471192152
1.62922740882836E+018,0.039084173291053,-0.096120878712805,0.428287040751717,0.897665536153511
1.62922740890204E+018,0.039753451948754,-0.095423751745593,0.428132405668962,0.897784280257268
1.62922740897998E+018,0.040486162157693,-0.094789053639491,0.428276710223973,0.897749945955778
1.62922740905755E+018,0.041094048542225,-0.094388344829885,0.428291090881825,0.897757685016363
1.62922740913116E+018,0.041902227349547,-0.09384922299903,0.42838128135728,0.897733816043665
1.62922740920692E+018,0.042592622035802,-0.093486565002663,0.428553051740962,0.89765717986079
1.62922740928332E+018,0.043144604857734,-0.093388160269271,0.428630351680532,0.89760415340584
1.62922740936021E+018,0.043696990506048,-0.093529411107102,0.428699325626057,0.897529782506651
1.62922740943508E+018,0.044215692421927,-0.093737866375585,0.428861973597219,0.897404921177336
1.62922740951635E+018,0.044681475526156,-0.09391394638932,0.429015004840691,0.897290288613407
1.62922740958515E+018,0.044932988005481,-0.094300445667319,0.42902000590009,0.897234800413655
1.62922740965959E+018,0.045129629408791,-0.094828731515793,0.429082079152194,0.897139564158755
1.62922740973536E+018,0.045250808106367,-0.095556314819832,0.429231766522058,0.896984640711382
1.62922740980987E+018,0.045343675344254,-0.096232872156006,0.429370854637854,0.896841041997098
1.62922740988515E+018,0.045231869353755,-0.096868498870886,0.429665175260346,0.896637278440821
1.62922740996139E+018,0.044870304432406,-0.098114944442259,0.429675318835888,0.896515049422213
1.62922741003627E+018,0.044538585223856,-0.099061455448375,0.430032298185401,0.896256305410505
1.62922741011082E+018,0.044041851215011,-0.100369325431122,0.430061554377563,0.896121293855029
1.62922741018631E+018,0.043514332748999,-0.10137688288521,0.430289592726414,0.895924157980588
1.62922741026346E+018,0.042976407530956,-0.102794618940983,0.430353109469226,0.895758056554715
1.62922741033783E+018,0.042471293520513,-0.104087904484889,0.430305599487803,0.895655619318096
1.62922741041141E+018,0.041808623176089,-0.10537894677361,0.430309920273275,0.895533745382837
1.62922741048813E+018,0.041221478624481,-0.10614915123413,0.43063124603914,0.8953155183102
1.62922741056346E+018,0.040547039436038,-0.107277411447909,0.430711300878504,0.895173318347657
1.6292274106389E+018,0.039721568805696,-0.108809984798726,0.430412438259342,0.895169099763482
1.62922741071387E+018,0.039008379033812,-0.10943138391864,0.430810512505786,0.894933193536427
1.62922741079174E+018,0.038240921842532,-0.110113512981116,0.431026090054793,0.894778830688158
1.62922741086561E+018,0.037439319122563,-0.110660182571931,0.431242720552317,0.894640898543892
1.62922741094139E+018,0.036649601935755,-0.111199422483127,0.43144304475014,0.894510142063296
1.62922741101568E+018,0.035771491192588,-0.111926091886099,0.431481537338262,0.894436489254085
1.62922741109215E+018,0.035007362659005,-0.112426015268723,0.431536808327405,0.894377358115161
1.62922741117041E+018,0.034269380836842,-0.112546867308431,0.431653329345913,0.894334509823202
1.62922741124429E+018,0.033450501580409,-0.112929438208716,0.431549078920756,0.894367596915569
1.62922741131976E+018,0.03266866729708,-0.113314256525462,0.431371954948507,0.894433269690376
1.62922741139626E+018,0.032106079770971,-0.113544306216877,0.431223747915322,0.894495930343638
1.62922741147473E+018,0.031617670259536,-0.113726035102241,0.431027736153276,0.894584709535025
1.62922741154903E+018,0.031196311388012,-0.11365244598134,0.430913017010656,0.894664117671551
1.62922741162425E+018,0.03091773671505,-0.113786882291148,0.430455038745294,0.894877141619824
1.62922741170164E+018,0.030859263255441,-0.113426285004795,0.430317635137896,0.894991014832367
1.62922741177985E+018,0.030816099995424,-0.112895696491248,0.430215913377757,0.895108483688636
1.6292274118527E+018,0.03073806053699,-0.112560700671127,0.429810226778439,0.895348216760114
1.62922741193105E+018,0.030995004962974,-0.111423935987984,0.429911371474208,0.895432983999058
1.62922741200558E+018,0.031209067716925,-0.110691970201275,0.429539566226964,0.895694726383242
1.62922741208088E+018,0.031478599051205,-0.110001427885415,0.429058650719435,0.896000813564229
1.62922741215658E+018,0.031785473935428,-0.109633730004884,0.428311719414393,0.896392324768682
1.62922741223268E+018,0.032279168527769,-0.108648960790691,0.428175518378972,0.896559637759339
1.62922741230739E+018,0.032966949763967,-0.107204211187281,0.428343786974729,0.896628148948671
1.62922741238412E+018,0.033605328320346,-0.106219845341614,0.428104306467626,0.896835954424196
1.62922741245838E+018,0.034369888047456,-0.105467613504378,0.427582598183241,0.897144589811567
1.62922741253412E+018,0.035065306853544,-0.104899938463874,0.427020598871837,0.897451856817222
1.62922741260871E+018,0.03572380621015,-0.104146300834519,0.426612920167142,0.89770751029431
1.62922741268494E+018,0.036318777950609,-0.103621009098044,0.425988796081794,0.898040744317574
1.62922741276081E+018,0.037117895674428,-0.102386804869995,0.425853234772362,0.898213909067952
1.62922741283667E+018,0.037730698772111,-0.101768042664966,0.42526532821337,0.898537178130034
1.62922741291151E+018,0.038388489407415,-0.100944595192905,0.424890225702173,0.89877962186796
1.62922741298714E+018,0.039042636323251,-0.10023829242117,0.424553968495758,0.898989368744659
1.62922741306332E+018,0.039616863294824,-0.099456771122286,0.424389948157586,0.899128481766321
1.62922741313856E+018,0.040250884977637,-0.098432986867299,0.42441883004117,0.899199349455605
1.62922741321412E+018,0.040885132802959,-0.097444256205662,0.424603294270281,0.899191339673062
1.62922741329011E+018,0.041348278745067,-0.096967336256785,0.424486384279606,0.899276912360876
1.62922741336568E+018,0.041777995691165,-0.096685870926045,0.424363393978218,0.899345401550811
1.62922741344008E+018,0.042027936118284,-0.096513872688692,0.424237916807082,0.899411426938448
1.62922741351619E+018,0.042189037326041,-0.096757195065767,0.423931844684516,0.899522051644589
1.62922741359237E+018,0.042206346760213,-0.096931488479319,0.423800641547422,0.899564298456944
1.62922741366675E+018,0.042231419490407,-0.097180305349318,0.423714708263624,0.899576756847969
1.62922741375032E+018,0.041906899306443,-0.098076942567319,0.423274743071496,0.899701737802549
1.62922741382031E+018,0.041628859058895,-0.098838676983076,0.423119986738756,0.899704079599445
1.6292274138959E+018,0.041294215330114,-0.099317487417361,0.423203215350881,0.899627624625905
1.62922741397521E+018,0.040840713590732,-0.1001334904948,0.423223070223106,0.89954852733227
1.62922741405083E+018,0.040470533101679,-0.100826195799115,0.423422258093736,0.899394132481387
1.62922741412594E+018,0.040020354500787,-0.101634894052849,0.423520361617001,0.899277055657656
1.62922741420156E+018,0.039357086941771,-0.102683907299808,0.423512704479046,0.899190760647565
1.6292274142835E+018,0.038616540547021,-0.103657505323761,0.423605439802644,0.899067470079884
1.62922741435245E+018,0.037926640139725,-0.104744179071426,0.423659296772832,0.898945508457723
1.62922741442933E+018,0.037101666100117,-0.105851629796961,0.423670166957604,0.898845085914163
1.62922741450509E+018,0.036329054810725,-0.106627448326004,0.424081184731718,0.898591083750883
1.62922741457976E+018,0.035577491126298,-0.107372462457988,0.424544564037695,0.898313592002765
1.62922741465534E+018,0.034922879279658,-0.107940661209144,0.425069941601607,0.898022689528142
1.62922741473189E+018,0.034046724022683,-0.108779846111331,0.425441188187075,0.897779238486438
1.62922741480462E+018,0.033383508956781,-0.109438804085362,0.425944443807059,0.897485387223655
1.62922741488218E+018,0.032728119123724,-0.110234490911352,0.426195769487338,0.897292813580514
1.62922741495791E+018,0.032023972313153,-0.111205159146321,0.426384395186836,0.897108814647189
1.62922741503482E+018,0.031491534711418,-0.111712170573294,0.426922728871628,0.8968085959446
1.62922741510751E+018,0.030950812158328,-0.112081578885504,0.427446595630752,0.896531747784178
1.62922741518362E+018,0.030393343878293,-0.112992254076386,0.427405371418822,0.896456158241424
1.62922741525692E+018,0.03001169787394,-0.113385880614166,0.427695262077819,0.896281040112006
1.62922741533749E+018,0.029584315550664,-0.11377868773404,0.427924224606933,0.896136170727125
